digraph Tree {
node [shape=box, fontname="helvetica"] ;
edge [fontname="helvetica"] ;
0 [label="Petal.Length <= 2.5\nentropy = 1.578\nsamples = 111\nvalue = [39, 32, 40]"] ;
1 [label="entropy = 0.0\nsamples = 39\nvalue = [39, 0, 0]"] ;
0 -> 1 [labeldistance=2.5, labelangle=45, headlabel="True"] ;
2 [label="Petal.Length <= 4.85\nentropy = 0.991\nsamples = 72\nvalue = [0, 32, 40]"] ;
0 -> 2 [labeldistance=2.5, labelangle=-45, headlabel="False"] ;
3 [label="Petal.Width <= 1.7\nentropy = 0.206\nsamples = 31\nvalue = [0, 30, 1]"] ;
2 -> 3 ;
4 [label="entropy = 0.0\nsamples = 29\nvalue = [0, 29, 0]"] ;
3 -> 4 ;
5 [label="entropy = 1.0\nsamples = 2\nvalue = [0, 1, 1]"] ;
3 -> 5 ;
6 [label="Petal.Width <= 1.7\nentropy = 0.281\nsamples = 41\nvalue = [0, 2, 39]"] ;
2 -> 6 ;
7 [label="entropy = 0.918\nsamples = 6\nvalue = [0, 2, 4]"] ;
6 -> 7 ;
8 [label="entropy = 0.0\nsamples = 35\nvalue = [0, 0, 35]"] ;
6 -> 8 ;
}