digraph Tree {
node [shape=box, fontname="helvetica"] ;
edge [fontname="helvetica"] ;
0 [label="Petal.Length <= 2.45\nentropy = 1.582\nsamples = 107\nvalue = [34, 39, 34]"] ;
1 [label="entropy = 0.0\nsamples = 34\nvalue = [34, 0, 0]"] ;
0 -> 1 [labeldistance=2.5, labelangle=45, headlabel="True"] ;
2 [label="Petal.Width <= 1.75\nentropy = 0.997\nsamples = 73\nvalue = [0, 39, 34]"] ;
0 -> 2 [labeldistance=2.5, labelangle=-45, headlabel="False"] ;
3 [label="Petal.Length <= 4.95\nentropy = 0.446\nsamples = 43\nvalue = [0, 39, 4]"] ;
2 -> 3 ;
4 [label="entropy = 0.0\nsamples = 37\nvalue = [0, 37, 0]"] ;
3 -> 4 ;
5 [label="entropy = 0.918\nsamples = 6\nvalue = [0, 2, 4]"] ;
3 -> 5 ;
6 [label="entropy = 0.0\nsamples = 30\nvalue = [0, 0, 30]"] ;
2 -> 6 ;
}